digraph Tree {
node [shape=box, style="filled, rounded", color="black", fontname="helvetica"] ;
edge [fontname="helvetica"] ;
0 [label="sepal length (cm) <= 5.45\ngini = 0.66\nsamples = 96\nvalue = [47, 48, 55]\nclass = virginica", fillcolor="#f6f1fd"] ;
1 [label="petal width (cm) <= 0.8\ngini = 0.25\nsamples = 39\nvalue = [46, 8, 0]\nclass = setosa", fillcolor="#ea975b"] ;
0 -> 1 [labeldistance=2.5, labelangle=45, headlabel="True"] ;
2 [label="gini = 0.0\nsamples = 33\nvalue = [46, 0, 0]\nclass = setosa", fillcolor="#e58139"] ;
1 -> 2 ;
3 [label="gini = 0.0\nsamples = 6\nvalue = [0, 8, 0]\nclass = versicolor", fillcolor="#39e581"] ;
1 -> 3 ;
4 [label="petal width (cm) <= 1.75\ngini = 0.5\nsamples = 57\nvalue = [1, 40, 55]\nclass = virginica", fillcolor="#ddcaf8"] ;
0 -> 4 [labeldistance=2.5, labelangle=-45, headlabel="False"] ;
5 [label="petal length (cm) <= 5.05\ngini = 0.24\nsamples = 29\nvalue = [1, 39, 5]\nclass = versicolor", fillcolor="#57e994"] ;
4 -> 5 ;
6 [label="sepal width (cm) <= 3.6\ngini = 0.05\nsamples = 27\nvalue = [1, 39, 0]\nclass = versicolor", fillcolor="#3ee684"] ;
5 -> 6 ;
7 [label="gini = 0.0\nsamples = 26\nvalue = [0, 39, 0]\nclass = versicolor", fillcolor="#39e581"] ;
6 -> 7 ;
8 [label="gini = 0.0\nsamples = 1\nvalue = [1, 0, 0]\nclass = setosa", fillcolor="#e58139"] ;
6 -> 8 ;
9 [label="gini = 0.0\nsamples = 2\nvalue = [0, 0, 5]\nclass = virginica", fillcolor="#8139e5"] ;
5 -> 9 ;
10 [label="petal length (cm) <= 4.85\ngini = 0.04\nsamples = 28\nvalue = [0, 1, 50]\nclass = virginica", fillcolor="#843de6"] ;
4 -> 10 ;
11 [label="sepal length (cm) <= 5.95\ngini = 0.5\nsamples = 2\nvalue = [0, 1, 1]\nclass = versicolor", fillcolor="#ffffff"] ;
10 -> 11 ;
12 [label="gini = 0.0\nsamples = 1\nvalue = [0, 1, 0]\nclass = versicolor", fillcolor="#39e581"] ;
11 -> 12 ;
13 [label="gini = 0.0\nsamples = 1\nvalue = [0, 0, 1]\nclass = virginica", fillcolor="#8139e5"] ;
11 -> 13 ;
14 [label="gini = 0.0\nsamples = 26\nvalue = [0, 0, 49]\nclass = virginica", fillcolor="#8139e5"] ;
10 -> 14 ;
}